//Numpy array shape [10, 32]
//Min -3.531250000000
//Max 3.984375000000
//Number of zeros 32

#ifndef W11_H_
#define W11_H_

namespace hls4ml_L1TSC4NGJetModel_v0 {
#ifdef __HLS4ML_LOAD_TXT_WEIGHTS__
weight11_t w11[320];
#else
weight11_t w11[320] = {-0.531250, -0.187500, 0.281250, 0.859375, -0.234375, 0.546875, 1.109375, 3.281250, 1.828125, 0.000000, -0.234375, 1.046875, -0.187500, 1.468750, 0.593750, 0.000000, -1.687500, 1.328125, 0.250000, -1.031250, 1.046875, -0.515625, -0.937500, -0.234375, -0.421875, -0.343750, -1.031250, 0.312500, 1.203125, 0.453125, 3.250000, -0.359375, -0.546875, 0.781250, -0.281250, 0.234375, 0.000000, -0.437500, -1.062500, -0.078125, 1.062500, 0.984375, 0.000000, 3.984375, 1.218750, -1.156250, 0.453125, 3.187500, 0.890625, 2.671875, 0.000000, 0.343750, -1.031250, -0.546875, 0.593750, -0.484375, 0.859375, 0.890625, 1.046875, 0.062500, -1.468750, 1.031250, -0.765625, 0.046875, 0.312500, -0.515625, -0.546875, -1.468750, -0.250000, -0.718750, 0.218750, -0.281250, -0.187500, -0.609375, -0.406250, -0.812500, 0.000000, 0.671875, 0.484375, 0.203125, 0.328125, 1.218750, 0.328125, -0.328125, 0.234375, 0.093750, 0.343750, -0.156250, 0.000000, 0.156250, -0.328125, -0.375000, -0.109375, 1.078125, 0.421875, 0.796875, -0.468750, 1.156250, -0.203125, 1.093750, -0.265625, 0.875000, -0.437500, 0.140625, 0.093750, 0.187500, 0.156250, 0.500000, 0.000000, 0.000000, 0.109375, 0.578125, -0.140625, -1.531250, -0.750000, -0.765625, 0.562500, -0.078125, 0.093750, -0.156250, 0.046875, -0.484375, 0.000000, 0.171875, -0.250000, -1.062500, -0.765625, -0.562500, -0.156250, 0.250000, -0.437500, 0.000000, -0.562500, -0.062500, -0.250000, 1.781250, 0.343750, 0.000000, -0.421875, 1.109375, 0.265625, -0.703125, 0.187500, 0.640625, 0.062500, 1.437500, -0.109375, 1.000000, -0.281250, 0.000000, -0.765625, 0.062500, 0.703125, 0.000000, 0.562500, -0.484375, 0.000000, 0.328125, 0.265625, 1.015625, 0.250000, -0.093750, 0.046875, 0.140625, 0.328125, -0.062500, 0.281250, -0.281250, 0.234375, -0.343750, 0.359375, -0.453125, 0.203125, 0.250000, -0.312500, 0.437500, -0.078125, 0.000000, -0.375000, 0.468750, 0.359375, 0.390625, -0.390625, 0.187500, -0.203125, -0.453125, 0.171875, 0.343750, 0.500000, -0.140625, 0.046875, 0.000000, -0.343750, 0.234375, -0.531250, 0.750000, -0.359375, 0.000000, 0.812500, 0.296875, -0.078125, 0.593750, 0.093750, 0.656250, -0.328125, 0.125000, 0.421875, 0.000000, -0.156250, 0.000000, 0.406250, -0.390625, -0.312500, -0.515625, -0.343750, 0.265625, -0.578125, 0.000000, -0.546875, -0.093750, 0.906250, -0.390625, 0.968750, -0.515625, 0.203125, -0.859375, -0.468750, 0.875000, 0.250000, 0.000000, -0.203125, -0.296875, -0.437500, 1.000000, -0.406250, 0.468750, 0.656250, -0.296875, -0.437500, 0.687500, -0.484375, -0.250000, 1.250000, 0.000000, 0.437500, 0.093750, 0.703125, -0.234375, -0.265625, 0.859375, 0.656250, -0.312500, 0.671875, -0.171875, -0.109375, -0.609375, -0.093750, 0.828125, -0.375000, 0.718750, 1.328125, 0.546875, 0.000000, 2.875000, 3.984375, -0.718750, 0.515625, 0.390625, 2.421875, -1.343750, 0.750000, -3.531250, 1.937500, 0.000000, 0.000000, -0.906250, 1.953125, -0.531250, -1.156250, 0.468750, -2.046875, -0.500000, -0.312500, 0.062500, 0.625000, -0.609375, 3.796875, -0.171875, -0.390625, -0.390625, -0.046875, 0.000000, -0.359375, 0.515625, 0.281250, -0.375000, 0.000000, -0.625000, -0.515625, -0.968750, 0.000000, 0.437500, -1.203125, -1.468750, 0.281250, -0.500000, 0.000000, -0.843750, 0.359375, -0.375000, 0.000000, -0.406250, 0.453125, -0.203125, 0.140625, 0.000000, -0.343750, 0.171875, 0.078125, 0.890625};

#endif

#endif
}
