//Numpy array shape [10, 10]
//Min -1.484375000000
//Max 1.421875000000
//Number of zeros 10

#ifndef W17_H_
#define W17_H_

namespace hls4ml_L1TSC4NGJetModel_v0 {
#ifdef __HLS4ML_LOAD_TXT_WEIGHTS__
weight17_t w17[100];
#else
weight17_t w17[100] = {-0.453125, -0.109375, -0.156250, 0.265625, 0.687500, 0.468750, 1.046875, -0.031250, 0.906250, 1.343750, 0.750000, -0.078125, 0.109375, -0.468750, -1.484375, -1.078125, -0.562500, -0.828125, -1.062500, -0.171875, -0.234375, -0.171875, -0.390625, 0.000000, -0.296875, 0.562500, -1.187500, 0.000000, 0.312500, 0.250000, 0.140625, -0.421875, -0.187500, -0.250000, 0.046875, 0.000000, 1.390625, -0.593750, 0.343750, 0.562500, 0.000000, -0.468750, -0.281250, 0.218750, -0.062500, -0.296875, -0.375000, 0.203125, -0.156250, 0.406250, 0.375000, -0.406250, 0.390625, -0.453125, 0.140625, -0.250000, -0.296875, -0.046875, -0.390625, 0.000000, 0.328125, 0.312500, -0.031250, 0.281250, 0.843750, 0.250000, 0.187500, 0.203125, 0.000000, 0.000000, 0.531250, -0.296875, -0.218750, -0.468750, -0.765625, 0.484375, 0.781250, 0.750000, -0.875000, -0.750000, -0.937500, -0.406250, 0.000000, -0.187500, 0.515625, 0.765625, -1.421875, -1.281250, 1.421875, 0.000000, -0.078125, 0.015625, 0.171875, -0.359375, 0.000000, -0.375000, -0.203125, -0.375000, 0.062500, 0.390625};

#endif

#endif
}
