//Numpy array shape [16, 8]
//Min -4.000000000000
//Max 3.984375000000
//Number of zeros 13

#ifndef W19_H_
#define W19_H_

namespace hls4ml_L1TSC4NGJetModel_v0 {
#ifdef __HLS4ML_LOAD_TXT_WEIGHTS__
weight19_t w19[128];
#else
weight19_t w19[128] = {0.921875, 1.062500, 1.125000, 0.593750, -3.859375, -2.156250, -1.062500, -2.296875, 0.156250, 0.171875, 0.125000, 0.125000, -0.125000, -0.328125, -0.296875, 0.000000, -2.531250, -1.203125, 2.156250, 3.921875, -2.250000, -1.984375, 0.000000, 1.531250, 0.343750, -0.234375, 0.359375, -0.375000, 0.000000, 0.234375, 0.281250, -0.062500, -1.421875, -0.437500, 0.968750, -1.281250, 1.531250, 2.203125, 0.531250, -3.078125, 1.390625, 0.796875, 0.484375, 1.093750, -2.968750, -4.000000, 3.984375, -4.000000, 1.546875, 0.781250, -0.078125, 1.125000, 0.000000, -0.421875, -4.000000, -3.750000, -0.312500, -0.375000, -0.140625, -0.250000, 0.156250, 0.140625, 0.078125, -0.421875, -0.359375, 0.203125, 0.000000, 0.000000, 0.390625, 0.250000, -0.218750, 0.406250, -0.125000, 0.187500, 0.093750, -0.250000, 0.375000, 0.046875, 0.203125, -0.453125, -1.343750, -1.015625, 0.765625, 0.625000, -0.296875, 0.578125, -4.000000, 1.906250, -0.375000, 0.390625, -0.265625, -0.156250, 0.000000, 0.328125, -0.234375, 0.281250, 0.000000, 0.000000, -0.343750, 0.968750, -1.281250, -0.562500, 1.343750, -0.609375, 0.000000, 0.000000, 0.234375, -0.171875, 3.000000, -2.750000, -0.234375, -0.671875, -0.125000, -2.671875, -2.578125, -2.906250, 1.734375, 0.921875, 0.000000, 2.953125, -0.562500, -0.359375, 0.250000, -1.140625, -1.031250, 0.000000, -2.109375, 1.812500};

#endif

#endif
}
