//Numpy array shape [1, 20, 10]
//Min -3.218750000000
//Max 1.875000000000
//Number of zeros 25

#ifndef W25_H_
#define W25_H_

namespace hls4ml_L1TSC4NGJetModel_v0 {
#ifdef __HLS4ML_LOAD_TXT_WEIGHTS__
weight25_t w25[200];
#else
weight25_t w25[200] = {0.109375, -0.078125, -0.265625, 1.578125, 0.015625, -0.078125, -0.125000, -0.296875, -0.031250, 0.046875, -0.390625, -0.312500, 0.890625, 0.593750, 0.093750, -0.171875, 0.031250, -1.937500, -0.375000, -0.093750, 0.000000, 0.390625, 0.156250, -0.046875, 0.000000, -0.359375, 0.000000, -0.109375, 0.093750, 1.031250, 0.000000, 0.000000, 0.046875, 0.000000, 0.000000, 0.046875, 0.015625, 0.000000, 0.093750, 0.000000, -0.343750, 0.187500, -0.218750, -1.203125, -0.140625, -0.046875, 0.000000, 0.062500, -0.078125, -0.015625, 0.343750, 0.265625, 0.328125, 1.421875, 0.421875, 0.390625, 0.171875, 0.031250, 0.296875, -0.250000, -0.015625, -1.703125, 0.062500, -0.593750, 0.312500, 0.406250, 0.593750, 0.156250, -0.375000, -0.421875, 0.046875, 0.406250, -0.500000, -2.140625, -0.484375, -0.265625, -0.359375, -0.046875, -0.625000, 0.000000, -0.109375, 0.328125, 0.015625, -3.218750, 0.203125, -0.296875, 0.093750, -0.109375, 0.593750, -0.046875, 0.093750, -0.140625, -0.375000, -2.125000, -0.218750, 0.171875, 0.265625, -0.250000, -0.296875, 0.156250, -0.078125, 0.000000, -0.296875, -1.734375, -0.437500, -0.312500, 0.312500, 0.453125, 0.171875, 0.093750, 0.515625, 0.546875, 0.328125, 0.296875, -0.125000, 0.078125, 0.093750, 0.046875, -0.312500, -0.343750, -0.296875, 0.875000, -0.343750, 0.859375, 0.187500, 0.140625, 0.015625, -0.234375, 0.656250, -0.031250, -0.312500, -0.406250, -0.187500, 0.843750, 0.468750, 0.062500, 0.234375, -0.156250, 0.437500, 0.000000, 0.000000, 0.000000, 0.000000, 0.000000, 0.000000, 0.031250, 0.000000, 0.015625, -0.093750, 0.000000, 0.453125, 0.312500, 0.750000, -0.500000, -0.515625, -0.312500, -0.406250, 0.156250, -0.296875, 0.000000, 0.406250, 0.000000, -0.031250, 0.078125, 0.250000, 0.312500, 0.250000, -0.234375, 0.406250, -0.562500, -0.593750, 0.078125, 0.000000, 0.046875, 0.078125, 0.062500, 0.281250, -0.328125, 0.468750, 0.078125, 0.359375, 1.875000, 0.000000, 0.062500, -0.015625, -0.656250, -1.718750, -0.343750, 0.234375, -0.234375, -0.046875, 0.078125, 0.218750, -0.609375, -0.328125, -0.125000, 0.000000, 0.312500, -0.296875, -0.015625};

#endif

#endif
}
