//Numpy array shape [1, 10, 10]
//Min -1.625000000000
//Max 2.125000000000
//Number of zeros 10

#ifndef W26_H_
#define W26_H_

namespace hls4ml_L1TSC4NGJetModel_v0 {
#ifdef __HLS4ML_LOAD_TXT_WEIGHTS__
weight26_t w26[100];
#else
weight26_t w26[100] = {-0.531250, 0.203125, 1.359375, 1.062500, 0.000000, -0.531250, -0.968750, 0.640625, -0.500000, -0.796875, 0.500000, 0.031250, -0.421875, 1.578125, -0.234375, 0.000000, 0.343750, 0.000000, 0.593750, 0.593750, 0.328125, -0.218750, 0.406250, 0.187500, 0.984375, -0.500000, 1.609375, -0.125000, 0.296875, 1.375000, 0.343750, 0.156250, -1.390625, -1.187500, -0.890625, -0.250000, 1.156250, -0.718750, 0.187500, 0.171875, 0.062500, -0.078125, 1.390625, 1.265625, 0.000000, -0.046875, 0.625000, 1.562500, 0.609375, 1.328125, -1.062500, 0.093750, 1.078125, 0.062500, 0.796875, -0.140625, 0.000000, 0.328125, -1.000000, 0.000000, 0.625000, 0.046875, 0.265625, -0.296875, -0.578125, -0.359375, -0.328125, -1.625000, 0.875000, -0.984375, -0.734375, 0.453125, 0.000000, -0.109375, 0.296875, -0.468750, -0.125000, 0.500000, -0.265625, 0.000000, -0.703125, 0.406250, 0.734375, 0.640625, 0.125000, 0.093750, -0.156250, 0.406250, -0.515625, -0.546875, 0.437500, 1.109375, -0.062500, -0.281250, 2.125000, -0.281250, 0.000000, 0.500000, -0.250000, 0.000000};

#endif

#endif
}
